<?xml version="1.0"?>
<opencv_storage>
<stage12>
  <maxWeakCount>8</maxWeakCount>
  <stageThreshold>-1.6066428422927856e+00</stageThreshold>
  <weakClassifiers>
    <_>
      <internalNodes>
        0 -1 74535 -2.4464309215545654e-02</internalNodes>
      <leafValues>
        4.5454546809196472e-01 -8.7724268436431885e-01</leafValues></_>
    <_>
      <internalNodes>
        0 -1 37281 5.3208405006444082e-05</internalNodes>
      <leafValues>
        -7.4657118320465088e-01 -9.0372525155544281e-02</leafValues></_>
    <_>
      <internalNodes>
        0 -1 96061 -6.3533061183989048e-03</internalNodes>
      <leafValues>
        5.5696398019790649e-01 -2.9581254720687866e-01</leafValues></_>
    <_>
      <internalNodes>
        0 -1 139816 2.3036926984786987e-02</internalNodes>
      <leafValues>
        -2.4098359048366547e-01 5.8286470174789429e-01</leafValues></_>
    <_>
      <internalNodes>
        0 -1 162040 3.0986242927610874e-03</internalNodes>
      <leafValues>
        1.8081274628639221e-01 -8.7664645910263062e-01</leafValues></_>
    <_>
      <internalNodes>
        0 -1 63121 1.5755533240735531e-04</internalNodes>
      <leafValues>
        -3.3719509840011597e-01 3.9936447143554688e-01</leafValues></_>
    <_>
      <internalNodes>
        0 -1 43810 7.1473633870482445e-03</internalNodes>
      <leafValues>
        -2.4773770570755005e-01 5.3227561712265015e-01</leafValues></_>
    <_>
      <internalNodes>
        0 -1 42635 1.8922086383099668e-05</internalNodes>
      <leafValues>
        -4.5828393101692200e-01 3.0188858509063721e-01</leafValues></_></weakClassifiers></stage12>
</opencv_storage>
