<?xml version="1.0"?>
<opencv_storage>
<stage13>
  <maxWeakCount>7</maxWeakCount>
  <stageThreshold>-1.8192203044891357e+00</stageThreshold>
  <weakClassifiers>
    <_>
      <internalNodes>
        0 -1 150724 2.8335724025964737e-02</internalNodes>
      <leafValues>
        -8.6891382932662964e-01 6.9230771064758301e-01</leafValues></_>
    <_>
      <internalNodes>
        0 -1 69613 1.6428537201136351e-03</internalNodes>
      <leafValues>
        -6.0390633344650269e-01 9.6159398555755615e-02</leafValues></_>
    <_>
      <internalNodes>
        0 -1 12893 -5.7301940396428108e-03</internalNodes>
      <leafValues>
        2.1384067833423615e-01 -5.7695084810256958e-01</leafValues></_>
    <_>
      <internalNodes>
        0 -1 139174 1.2181496247649193e-02</internalNodes>
      <leafValues>
        1.3039922714233398e-01 -9.2660391330718994e-01</leafValues></_>
    <_>
      <internalNodes>
        0 -1 80401 -4.3043503537774086e-03</internalNodes>
      <leafValues>
        2.9946920275688171e-01 -4.7100207209587097e-01</leafValues></_>
    <_>
      <internalNodes>
        0 -1 58923 -1.8177852034568787e-03</internalNodes>
      <leafValues>
        3.6544683575630188e-01 -4.0252387523651123e-01</leafValues></_>
    <_>
      <internalNodes>
        0 -1 152242 2.3271972895599902e-04</internalNodes>
      <leafValues>
        2.7361166477203369e-01 -5.8699119091033936e-01</leafValues></_></weakClassifiers></stage13>
</opencv_storage>
