<?xml version="1.0"?>
<opencv_storage>
<stage5>
  <maxWeakCount>5</maxWeakCount>
  <stageThreshold>-1.5813425779342651e+00</stageThreshold>
  <weakClassifiers>
    <_>
      <internalNodes>
        0 -1 147452 -3.5981565713882446e-02</internalNodes>
      <leafValues>
        6.8421053886413574e-01 -8.7758946418762207e-01</leafValues></_>
    <_>
      <internalNodes>
        0 -1 111948 -1.6198655590415001e-02</internalNodes>
      <leafValues>
        4.4529306888580322e-01 -6.2423723936080933e-01</leafValues></_>
    <_>
      <internalNodes>
        0 -1 13407 -1.5116058057174087e-04</internalNodes>
      <leafValues>
        -8.4952354431152344e-01 2.0024287700653076e-01</leafValues></_>
    <_>
      <internalNodes>
        0 -1 159862 1.5847683243919164e-04</internalNodes>
      <leafValues>
        2.0184427499771118e-01 -8.3706325292587280e-01</leafValues></_>
    <_>
      <internalNodes>
        0 -1 60769 -2.6664081960916519e-02</internalNodes>
      <leafValues>
        5.6816339492797852e-01 -3.6358419060707092e-01</leafValues></_></weakClassifiers></stage5>
</opencv_storage>
