<?xml version="1.0"?>
<opencv_storage>
<stage4>
  <maxWeakCount>5</maxWeakCount>
  <stageThreshold>-1.3815776109695435e+00</stageThreshold>
  <weakClassifiers>
    <_>
      <internalNodes>
        0 -1 70522 -2.0038951188325882e-02</internalNodes>
      <leafValues>
        7.1428573131561279e-01 -8.8113206624984741e-01</leafValues></_>
    <_>
      <internalNodes>
        0 -1 106391 -1.3702208176255226e-02</internalNodes>
      <leafValues>
        8.2290363311767578e-01 -5.8125543594360352e-01</leafValues></_>
    <_>
      <internalNodes>
        0 -1 27489 -2.8203250840306282e-03</internalNodes>
      <leafValues>
        -8.3985102176666260e-01 2.9984185099601746e-01</leafValues></_>
    <_>
      <internalNodes>
        0 -1 9442 -2.7394713833928108e-04</internalNodes>
      <leafValues>
        -9.1744017601013184e-01 1.9817972183227539e-01</leafValues></_>
    <_>
      <internalNodes>
        0 -1 98352 -6.2930658459663391e-03</internalNodes>
      <leafValues>
        7.2248119115829468e-01 -3.3083879947662354e-01</leafValues></_></weakClassifiers></stage4>
</opencv_storage>
