<?xml version="1.0"?>
<opencv_storage>
<stage7>
  <maxWeakCount>7</maxWeakCount>
  <stageThreshold>-1.8897206783294678e+00</stageThreshold>
  <weakClassifiers>
    <_>
      <internalNodes>
        0 -1 24074 -1.8428897485136986e-02</internalNodes>
      <leafValues>
        6.4705884456634521e-01 -8.7406015396118164e-01</leafValues></_>
    <_>
      <internalNodes>
        0 -1 33876 1.2690759263932705e-02</internalNodes>
      <leafValues>
        -6.6878193616867065e-01 1.7114505171775818e-01</leafValues></_>
    <_>
      <internalNodes>
        0 -1 154489 1.4251232147216797e-02</internalNodes>
      <leafValues>
        -4.7009825706481934e-01 3.8201165199279785e-01</leafValues></_>
    <_>
      <internalNodes>
        0 -1 15124 -7.0577748119831085e-02</internalNodes>
      <leafValues>
        -9.1582781076431274e-01 1.7861546576023102e-01</leafValues></_>
    <_>
      <internalNodes>
        0 -1 5636 9.2569012194871902e-03</internalNodes>
      <leafValues>
        2.3333054780960083e-01 -7.1099698543548584e-01</leafValues></_>
    <_>
      <internalNodes>
        0 -1 95197 2.6635695248842239e-03</internalNodes>
      <leafValues>
        -2.7520769834518433e-01 6.8361163139343262e-01</leafValues></_>
    <_>
      <internalNodes>
        0 -1 161513 -3.2129263854585588e-04</internalNodes>
      <leafValues>
        -8.0922234058380127e-01 2.2881467640399933e-01</leafValues></_></weakClassifiers></stage7>
</opencv_storage>
