<?xml version="1.0"?>
<opencv_storage>
<stage0>
  <maxWeakCount>5</maxWeakCount>
  <stageThreshold>-1.6289252042770386e+00</stageThreshold>
  <weakClassifiers>
    <_>
      <internalNodes>
        0 -1 135321 5.6366663426160812e-02</internalNodes>
      <leafValues>
        -9.3627953529357910e-01 -7.4074074625968933e-02</leafValues></_>
    <_>
      <internalNodes>
        0 -1 46165 -6.8520475178956985e-03</internalNodes>
      <leafValues>
        5.1448410749435425e-01 -7.0947158336639404e-01</leafValues></_>
    <_>
      <internalNodes>
        0 -1 135321 1.7934046685695648e-02</internalNodes>
      <leafValues>
        -7.1981185674667358e-01 4.1311094164848328e-01</leafValues></_>
    <_>
      <internalNodes>
        0 -1 157924 -1.0007780510932207e-03</internalNodes>
      <leafValues>
        -9.5387798547744751e-01 2.2496455907821655e-01</leafValues></_>
    <_>
      <internalNodes>
        0 -1 81493 -1.9841339439153671e-02</internalNodes>
      <leafValues>
        5.1995855569839478e-01 -6.2124955654144287e-01</leafValues></_></weakClassifiers></stage0>
</opencv_storage>
